uniprot_id,0,1,2,3,4,5,6,7,8,9,10,11,12,13,14,15,16,17,18
Q01196,-1.145761489868164,2.787468433380127,-0.3738116025924682,3.214198112487793,-0.3460629284381866,-2.071058750152588,0.4766616225242615,0.8748556971549988,1.5379533767700195,0.5009750723838806,-1.0655248165130615,0.850762128829956,0.8433914184570312,0.399933248758316,1.5300277471542358,0.8408052325248718,-0.0473190248012542,0.4070141911506653,4.64050817489624
Q13951,-1.5857023000717163,-0.0947955995798111,-0.8716413974761963,2.597114562988281,-0.1139666736125946,-1.4661259651184082,2.837951898574829,1.974453806877136,0.8467811942100525,0.9684528708457948,-2.472006320953369,0.8625501990318298,0.2875851392745971,0.106336772441864,1.4901658296585083,-0.2328248769044876,-0.0400589331984519,-1.477746605873108,4.449167728424072
